tree
version=v4
num_class=1
num_tree_per_iteration=1
label_index=0
max_feature_idx=4
objective=binary sigmoid:1
feature_names=Column_0 Column_1 Column_2 Column_3 Column_4
feature_infos=[5:289] [1:59] [0:5] [1:179] [3.4055732738330621e-05:0.49426018164424035]
tree_sizes=867 570 356 358 460 677 779 997 671 464 570 1100 784 1439 1001 788 788 358 783 466 467 574 356 569 358 565 897 467 781 569 358 359 576 359 571 358 901 577 360 575 574 470 470 690 471 582 470 472 363 583 361 467 581 693 797 581 914 469 693 696 473 581 476 475 476 582 816 476 920 590 478 703 590 477 586 480 366 591 578 366 474 688 793 793 474 476 369 475 579 475 474 579 473 473 480 479 370 369 479 370

Tree=0
num_leaves=7
num_cat=0
split_feature=0 0 0 1 3 3
split_gain=176587 5.82077e-11 7.10543e-15 8.88178e-16 4.44089e-16 4.44089e-16
threshold=96.500000000000014 227.50000000000003 72.500000000000014 7.5000000000000009 61.500000000000007 161.50000000000003
decision_type=2 2 2 2 2 2
left_child=2 -2 -1 4 -4 -5
right_child=1 -3 3 5 -6 -7
leaf_value=-4.5772111952992729 4.4128152567859349 4.4128152567859349 -4.5772111952992729 -4.5772111952992729 -4.577211195299272 -4.577211195299272
leaf_weight=39.944263827055693 24.115417897701263 19.292334318161011 0.23359218612313171 2.3359218612313275 1.1679609306156633 0.31145624816417683
leaf_count=3591 25 20 21 210 105 28
internal_value=-0.112307 4.41282 -4.57721 -4.57721 -4.57721 -4.57721
internal_weight=87.4009 43.4078 43.9932 4.04893 1.40155 2.64738
internal_count=4000 45 3955 364 126 238
is_linear=0
shrinkage=1


Tree=1
num_leaves=4
num_cat=0
split_feature=0 0 1
split_gain=87.4844 7.10543e-15 2.22045e-16
threshold=96.500000000000014 76.500000000000014 9.5000000000000018
decision_type=2 2 2
left_child=1 -1 -3
right_child=-2 2 -4
leaf_value=-0.10102834856643224 0.10121209896244553 -0.10102834856643227 -0.10102834856643211
leaf_weight=38.537837262265384 46.174485683441162 0.58436459116637596 0.72541811317205429
leaf_count=3825 45 58 72
internal_value=0.0075292 -0.101028 -0.101028
internal_weight=86.0221 39.8476 1.30978
internal_count=4000 3955 130
is_linear=0
shrinkage=0.1


Tree=2
num_leaves=2
num_cat=0
split_feature=0
split_gain=79.07
threshold=96.500000000000014
decision_type=2
left_child=-1
right_child=-2
leaf_value=-0.10092954303633715 0.10109542651414404
leaf_weight=36.089120316319168 41.826168894767761
leaf_count=3955 45
internal_value=0.00752068
internal_weight=77.9153
internal_count=4000
is_linear=0
shrinkage=0.1


Tree=3
num_leaves=2
num_cat=0
split_feature=0
split_gain=71.4727
threshold=96.500000000000014
decision_type=2
left_child=-1
right_child=-2
leaf_value=-0.10084030166062111 0.10099009943050574
leaf_weight=32.682214095257223 37.883345782756805
leaf_count=3955 45
internal_value=0.00751299
internal_weight=70.5656
internal_count=4000
is_linear=0
shrinkage=0.1


Tree=4
num_leaves=3
num_cat=0
split_feature=0 0
split_gain=64.6117 7.10543e-15
threshold=96.500000000000014 227.50000000000003
decision_type=2 2
left_child=-1 -2
right_child=1 -3
leaf_value=-0.10075969419565806 0.10089499119675023 0.10089499119675023
leaf_weight=29.594544644933194 19.060520827770233 15.248416662216185
leaf_count=3955 25 20
internal_value=0.00750605 0.100895
internal_weight=63.9035 34.3089
internal_count=4000 45
is_linear=0
shrinkage=0.1


Tree=5
num_leaves=5
num_cat=0
split_feature=0 0 1 3
split_gain=58.4145 3.55271e-15 2.22045e-16 5.55112e-17
threshold=96.500000000000014 8.5000000000000018 13.500000000000002 116.50000000000001
decision_type=2 2 2 2
left_child=1 2 -1 -4
right_child=-2 -3 3 -5
leaf_value=-0.10068687878092229 0.10080909708249888 -0.10068687878092264 -0.10068687878092225 -0.1006868787809222
leaf_weight=0.98920563235879189 31.069115996360779 25.326374340802431 0.25746447965502739 0.22358757443726063
leaf_count=146 45 3738 38 33
internal_value=0.00749978 -0.100687 -0.100687 -0.100687
internal_weight=57.8657 26.7966 1.47026 0.481052
internal_count=4000 3955 217 71
is_linear=0
shrinkage=0.1


Tree=6
num_leaves=6
num_cat=0
split_feature=0 0 0 0 3
split_gain=52.8158 3.55271e-15 3.55271e-15 8.88178e-16 1.11022e-16
threshold=96.500000000000014 58.500000000000007 208.50000000000003 61.500000000000007 160.50000000000003
decision_type=2 2 2 2 2
left_child=1 -1 -2 4 -3
right_child=2 3 -4 -5 -6
leaf_value=-0.10062108434818706 0.1007315163344841 -0.10062108434818709 0.10073151633448413 -0.10062108434818706 -0.10062108434818627
leaf_weight=17.495374286547307 13.753935217857363 0.84655036870390077 14.37911409139633 5.7970296987332404 0.12268845923244953
leaf_count=2852 22 138 23 945 20
internal_value=0.00749412 -0.100621 0.100732 -0.100621 -0.100621
internal_weight=52.3947 24.2616 28.133 6.76627 0.969239
internal_count=4000 3955 45 1103 158
is_linear=0
shrinkage=0.1


Tree=7
num_leaves=8
num_cat=0
split_feature=0 0 3 3 3 3 4
split_gain=47.7573 3.55271e-15 1.77636e-15 1.77636e-15 1.77636e-15 1.11022e-16 2.77556e-17
threshold=96.500000000000014 50.500000000000007 171.50000000000003 175.50000000000003 172.50000000000003 176.50000000000003 0.058767713810359688
decision_type=2 2 2 2 2 2 2
left_child=1 2 -1 4 -3 -4 -7
right_child=-2 3 5 -5 -6 6 -8
leaf_value=-0.10056162549172519 0.10066141610901079 -0.10056162549172526 -0.10056162549172486 -0.10056162549172432 -0.10056162549172432 -0.10056162549172439 -0.1005616254917243
leaf_weight=12.812548185233027 25.472660064697266 8.0196443777531332 0.49983933102339584 0.1999357324093588 0.1999357324093588 0.12218294758349657 0.11107540689408779
leaf_count=2307 45 1444 90 36 36 22 20
internal_value=0.007489 -0.100562 -0.100562 -0.100562 -0.100562 -0.100562 -0.100562
internal_weight=47.4378 21.9652 13.5456 8.41952 8.21958 0.733098 0.233258
internal_count=4000 3955 2439 1516 1480 132 42
is_linear=0
shrinkage=0.1


Tree=8
num_leaves=5
num_cat=0
split_feature=0 0 3 1
split_gain=43.186 3.55271e-15 3.55271e-15 4.44089e-16
threshold=96.500000000000014 70.500000000000014 15.500000000000002 1.5000000000000002
decision_type=2 2 2 2
left_child=1 -1 -2 -3
right_child=2 3 -4 -5
leaf_value=-0.10050789385112979 0.10059807296387811 -0.10050789385112957 0.10059807296387813 -0.10050789385112978
leaf_weight=17.557109657675031 12.299941062927248 0.18602893967181389 10.762448430061339 2.1418467108160257
leaf_count=3492 24 37 21 426
internal_value=0.00748437 -0.100508 0.100598 -0.100508
internal_weight=42.9474 19.885 23.0624 2.32788
internal_count=4000 3955 45 463
is_linear=0
shrinkage=0.1


Tree=9
num_leaves=3
num_cat=0
split_feature=0 0
split_gain=39.0546 3.55271e-15
threshold=96.500000000000014 73.500000000000014
decision_type=2 2
left_child=1 -1
right_child=-2 -3
leaf_value=-0.1004593346706722 0.10054083555753562 -0.10045933467067221
leaf_weight=16.594540095888082 20.878989547491074 1.4063941002823401
leaf_count=3646 45 309
internal_value=0.00748019 -0.100459
internal_weight=38.8799 18.0009
internal_count=4000 3955
is_linear=0
shrinkage=0.1


Tree=10
num_leaves=4
num_cat=0
split_feature=0 0 0
split_gain=35.3203 3.55271e-15 5.55112e-17
threshold=96.500000000000014 6.5000000000000009 5.5000000000000009
decision_type=2 2 2
left_child=1 2 -1
right_child=-2 -3 -4
leaf_value=-0.1004154311725946 0.10048910705501486 -0.1004154311725962 -0.10041543117259569
leaf_weight=0.22248106542974966 18.901321738958359 15.878556040115653 0.19364092731848359
leaf_count=54 45 3854 47
internal_value=0.00747641 -0.100415 -0.100415
internal_weight=35.196 16.2947 0.416122
internal_count=4000 3955 101
is_linear=0
shrinkage=0.1


Tree=11
num_leaves=9
num_cat=0
split_feature=0 3 0 0 0 0 1 4
split_gain=31.9446 3.55271e-15 1.77636e-15 1.77636e-15 1.77636e-15 1.11022e-16 5.55112e-17 5.55112e-17
threshold=96.500000000000014 13.500000000000002 77.500000000000014 59.500000000000007 54.500000000000007 57.500000000000007 8.5000000000000018 0.12127533156321979
decision_type=2 2 2 2 2 2 2 2
left_child=2 -2 3 4 -1 -6 -4 -7
right_child=1 -3 6 -5 5 7 -8 -9
leaf_value=-0.10037574081824895 0.10044234820146136 0.10044234820146142 -0.10037574081824739 -0.10037574081824888 -0.10037574081824863 -0.10037574081824861 -0.10037574081824846 -0.1003757408182477
leaf_weight=9.8380177542567218 7.9847507178783443 9.1254293918609601 0.11560976132750589 3.606278683990241 0.59296619519591409 0.30580646544694901 0.20884343981742859 0.08204563707113266
leaf_count=2638 21 24 31 967 159 82 56 22
internal_value=0.007473 0.100442 -0.100376 -0.100376 -0.100376 -0.100376 -0.100376 -0.100376
internal_weight=31.8597 17.1102 14.7496 14.4251 10.8188 0.980818 0.324453 0.387852
internal_count=4000 45 3955 3868 2901 263 87 104
is_linear=0
shrinkage=0.1


Tree=12
num_leaves=6
num_cat=0
split_feature=0 0 0 4 1
split_gain=28.8928 3.55271e-15 1.77636e-15 1.77636e-15 2.77556e-17
threshold=96.500000000000014 78.500000000000014 53.500000000000007 0.14454260910584249 11.500000000000002
decision_type=2 2 2 2 2
left_child=1 2 3 -1 -3
right_child=-2 4 -4 -5 -6
leaf_value=-0.10033985870132911 0.10040007696052344 -0.10033985870132728 -0.10033985870132905 -0.10033985870132851 -0.10033985870132781
leaf_weight=8.4389955736696685 15.488118231296538 0.097892348654568972 4.4321604752913126 0.30380384065210897 0.077638759277760983
leaf_count=2500 45 29 1313 90 23
internal_value=0.00746991 -0.10034 -0.10034 -0.10034 -0.10034
internal_weight=28.8386 13.3505 13.175 8.7428 0.175531
internal_count=4000 3955 3903 2590 52
is_linear=0
shrinkage=0.1


Tree=13
num_leaves=12
num_cat=0
split_feature=0 0 0 0 0 4 0 4 4 4 4
split_gain=26.1335 3.55271e-15 1.77636e-15 1.77636e-15 1.77636e-15 1.77636e-15 1.11022e-16 1.11022e-16 5.55112e-17 2.77556e-17 2.77556e-17
threshold=96.500000000000014 76.500000000000014 73.500000000000014 68.500000000000014 61.500000000000007 0.13735728435761776 71.500000000000014 0.10241300984920816 0.063198052368330995 0.13115713122609721 0.10915867904798675
decision_type=2 2 2 2 2 2 2 2 2 2 2
left_child=1 2 3 4 5 -1 7 -5 -3 10 -10
right_child=-2 8 -4 6 -6 -7 -8 -9 9 -11 -12
leaf_value=-0.10030741241127704 0.10036185817574005 -0.10030741241127594 -0.10030741241127664 -0.10030741241127634 -0.10030741241127682 -0.10030741241127672 -0.10030741241127668 -0.10030741241127639 -0.10030741241127594 -0.10030741241127539 -0.10030741241127533
leaf_weight=8.441808966686942 14.019293636083601 0.17415241082198996 0.54689967609010715 0.29025401803664941 1.1396289339754737 0.75466044689528722 0.3391389052849263 0.17415241082198918 0.097769774496555328 0.064161414513364434 0.06110610906034708
leaf_count=2763 45 57 179 95 373 247 111 57 32 21 20
internal_value=0.00746712 -0.100307 -0.100307 -0.100307 -0.100307 -0.100307 -0.100307 -0.100307 -0.100307 -0.100307 -0.100307
internal_weight=26.103 12.0837 11.6865 11.1396 10.3361 9.19647 0.803545 0.464406 0.39719 0.223037 0.158876
internal_count=4000 3955 3825 3646 3383 3010 263 152 130 73 52
is_linear=0
shrinkage=0.1


Tree=14
num_leaves=8
num_cat=0
split_feature=0 0 0 3 3 4 3
split_gain=23.6386 1.77636e-15 1.77636e-15 1.77636e-15 1.77636e-15 2.22045e-16 2.77556e-17
threshold=96.500000000000014 77.500000000000014 76.500000000000014 174.50000000000003 146.50000000000003 0.043417954252691869 140.50000000000003
decision_type=2 2 2 2 2 2 2
left_child=1 2 3 4 -1 -6 -3
right_child=-2 6 -4 -5 5 -7 -8
leaf_value=-0.10027807599733574 0.10032730389166007 -0.10027807599733458 -0.10027807599733418 -0.10027807599733514 -0.10027807599733536 -0.10027807599733563 -0.10027807599733443
leaf_weight=8.2627831427380389 12.689328342676161 0.16038869554177004 0.1189088604878642 0.32907335809432048 0.5558297897223391 1.4296716481912879 0.080194347770884633
leaf_count=2988 45 58 43 119 201 517 29
internal_value=0.00746459 -0.100278 -0.100278 -0.100278 -0.100278 -0.100278 -0.100278
internal_weight=23.6262 10.9368 10.6963 10.5774 10.2483 1.9855 0.240583
internal_count=4000 3955 3868 3825 3706 718 87
is_linear=0
shrinkage=0.1


Tree=15
num_leaves=6
num_cat=0
split_feature=0 0 3 3 3
split_gain=21.3826 3.55271e-15 1.77636e-15 1.77636e-15 5.55112e-17
threshold=96.500000000000014 77.500000000000014 170.50000000000003 156.50000000000003 140.50000000000003
decision_type=2 2 2 2 2
left_child=1 2 3 -1 -3
right_child=-2 4 -4 -5 -6
leaf_value=-0.10025153901240869 0.10029605438694474 -0.10025153901240745 -0.10025153901240835 -0.10025153901240846 -0.1002515390124073
leaf_weight=8.1916505699045921 11.485174745321272 0.14516215492039997 0.57814582390710789 0.91101766191423017 0.072581077460199594
leaf_count=3273 45 58 231 364 29
internal_value=0.00746231 -0.100252 -0.100252 -0.100252 -0.100252
internal_weight=21.3837 9.89856 9.68081 9.10267 0.217743
internal_count=4000 3955 3868 3637 87
is_linear=0
shrinkage=0.1


Tree=16
num_leaves=6
num_cat=0
split_feature=0 0 0 3 3
split_gain=19.3425 1.77636e-15 1.77636e-15 1.11022e-16 2.77556e-17
threshold=96.500000000000014 77.500000000000014 73.500000000000014 157.50000000000003 145.50000000000003
decision_type=2 2 2 2 2
left_child=1 2 -1 -4 -3
right_child=-2 4 3 -5 -6
leaf_value=-0.1002275434120493 0.10026780818648265 -0.10022754341204801 -0.10022754341204887 -0.10022754341204793 -0.10022754341204759
leaf_weight=8.2586926124058646 10.394994914531706 0.13817340903915543 0.43037619208917099 0.072484411299228668 0.058893584180623293
leaf_count=3646 45 61 190 32 26
internal_value=0.00746025 -0.100228 -0.100228 -0.100228 -0.100228
internal_weight=19.3536 8.95862 8.76155 0.502861 0.197067
internal_count=4000 3955 3868 222 87
is_linear=0
shrinkage=0.1


Tree=17
num_leaves=2
num_cat=0
split_feature=0
split_gain=17.4974
threshold=96.500000000000014
decision_type=2
left_child=-1
right_child=-2
leaf_value=-0.10020584472261669 0.10024225409132087
leaf_weight=8.107761089922862 9.4080559909343702
leaf_count=3955 45
internal_value=0.00745838
internal_weight=17.5158
internal_count=4000
is_linear=0
shrinkage=0.1


Tree=18
num_leaves=6
num_cat=0
split_feature=3 0 4 0 0
split_gain=15.8288 8.88178e-16 4.44089e-16 5.55112e-17 2.77556e-17
threshold=29.000000000000004 64.500000000000014 0.040728125250120741 71.500000000000014 75.500000000000014
decision_type=2 2 2 2 2
left_child=-1 -2 3 -3 -5
right_child=1 2 -4 4 -6
leaf_value=0.10021915388236208 -0.10018621917841052 -0.10018621917841 -0.10018621917841047 -0.10018621917840978 -0.1001862191784096
leaf_weight=8.5146235674619657 5.8719107770593846 0.15955270989797998 1.0704873675713313 0.12986848480068147 0.10575005190912634
leaf_count=45 3165 86 577 70 57
internal_value=0.0074567 -0.100186 -0.100186 -0.100186 -0.100186
internal_weight=15.8522 7.33757 1.46566 0.395171 0.235619
internal_count=4000 3955 790 213 127
is_linear=0
shrinkage=0.1


Tree=19
num_leaves=3
num_cat=0
split_feature=0 0
split_gain=14.3195 8.88178e-16
threshold=96.500000000000014 73.500000000000014
decision_type=2 2
left_child=1 -1
right_child=-2 -3
leaf_value=-0.10016846646427394 0.10019825382093057 -0.10016846646427378
leaf_weight=6.1216148233506829 7.7058751881122589 0.5188093747710808
leaf_count=3646 45 309
internal_value=0.00745517 -0.100168
internal_weight=14.3463 6.64042
internal_count=4000 3955
is_linear=0
shrinkage=0.1


Tree=20
num_leaves=3
num_cat=0
split_feature=0 0
split_gain=12.9545 1.77636e-15
threshold=96.500000000000014 69.500000000000014
decision_type=2 2
left_child=1 -1
right_child=-2 -3
leaf_value=-0.10015240619361239 0.10017934436040254 -0.10015240619361231
leaf_weight=5.2132277112687007 6.9738131761550903 0.79619099991396058
leaf_count=3431 45 524
internal_value=0.00745379 -0.100152
internal_weight=12.9832 6.00942
internal_count=4000 3955
is_linear=0
shrinkage=0.1


Tree=21
num_leaves=4
num_cat=0
split_feature=0 0 3
split_gain=11.7197 8.88178e-16 1.11022e-16
threshold=96.500000000000014 67.500000000000014 172.50000000000003
decision_type=2 2 2
left_child=1 -1 -3
right_child=-2 2 -4
leaf_value=-0.10013788222186287 0.10016225155993541 -0.10013788222186278 -0.10013788222186054
leaf_weight=4.5788934105075896 6.3111895322799683 0.81677558133378614 0.042626335052773356
leaf_count=3330 45 594 31
internal_value=0.00745255 -0.100138 -0.100138
internal_weight=11.7495 5.4383 0.859402
internal_count=4000 3955 625
is_linear=0
shrinkage=0.1


Tree=22
num_leaves=2
num_cat=0
split_feature=0
split_gain=10.6029
threshold=96.500000000000014
decision_type=2
left_child=-1
right_child=-2
leaf_value=-0.100124737506743 0.10014677993447148
leaf_weight=4.921386243076995 5.7114375382661819
leaf_count=3955 45
internal_value=0.00745141
internal_weight=10.6328
internal_count=4000
is_linear=0
shrinkage=0.1


Tree=23
num_leaves=4
num_cat=0
split_feature=0 0 0
split_gain=9.59255 8.88178e-16 8.88178e-16
threshold=96.500000000000014 76.500000000000014 227.50000000000003
decision_type=2 2 2
left_child=1 -1 -2
right_child=2 -3 -4
leaf_value=-0.10011286337494055 0.10013279733512746 -0.10011286337493996 0.10013279733512746
leaf_weight=4.3071684805909172 2.8714485466480255 0.14638742548413564 2.2971588373184204
leaf_count=3825 25 130 20
internal_value=0.00745039 -0.100113 0.100133
internal_weight=9.62216 4.45356 5.16861
internal_count=4000 3955 45
is_linear=0
shrinkage=0.1


Tree=24
num_leaves=2
num_cat=0
split_feature=0
split_gain=8.67862
threshold=96.500000000000014
decision_type=2
left_child=-1
right_child=-2
leaf_value=-0.10010211163619101 0.10012014518062347
leaf_weight=4.0301549684954807 4.677310511469841
leaf_count=3955 45
internal_value=0.00744947
internal_weight=8.70747
internal_count=4000
is_linear=0
shrinkage=0.1


Tree=25
num_leaves=4
num_cat=0
split_feature=0 0 3
split_gain=7.85187 8.88178e-16 8.88178e-16
threshold=96.500000000000014 30.500000000000004 15.500000000000002
decision_type=2 2 2
left_child=1 -1 -2
right_child=2 -3 -4
leaf_value=-0.10009238192803693 0.10010870207520124 -0.100092381928037 0.10010870207520123
leaf_weight=1.261455543804914 2.2574211359024048 2.3855157103971578 1.975243493914604
leaf_count=1368 24 2587 21
internal_value=0.00744863 -0.100092 0.100109
internal_weight=7.87964 3.64697 4.23266
internal_count=4000 3955 45
is_linear=0
shrinkage=0.1


Tree=26
num_leaves=7
num_cat=0
split_feature=0 0 0 1 3 3
split_gain=7.10394 8.88178e-16 5.55112e-17 2.77556e-17 2.77556e-17 1.38778e-17
threshold=96.500000000000014 12.500000000000002 7.5000000000000009 4.5000000000000009 152.50000000000003 120.50000000000001
decision_type=2 2 2 2 2 2
left_child=1 2 4 -4 5 -1
right_child=-2 -3 3 -5 -6 -7
leaf_value=-0.10008358277837422 0.10009834417643163 -0.10008358277837609 -0.10008358277837431 -0.10008358277837555 -0.10008358277837236 -0.10008358277837318
leaf_weight=0.0709269990329634 3.8302494585514069 2.9338744541164488 0.055907163943629712 0.17856915050651878 0.026701929047703743 0.034211846592370421
leaf_count=85 45 3516 67 214 32 41
internal_value=0.00744788 -0.100084 -0.100084 -0.100084 -0.100084 -0.100084
internal_weight=7.13044 3.30019 0.366317 0.234476 0.131841 0.105139
internal_count=4000 3955 439 281 158 126
is_linear=0
shrinkage=0.1


Tree=27
num_leaves=3
num_cat=0
split_feature=0 0
split_gain=6.42733 4.44089e-16
threshold=96.500000000000014 33.500000000000007
decision_type=2 2
left_child=1 -1
right_child=-2 -3
leaf_value=-0.10007562287113128 0.10008897332444694 -0.10007562287113135
leaf_weight=1.1605660455534237 3.4660611301660538 1.8257961601484565
leaf_count=1537 45 2418
internal_value=0.00744719 -0.100076
internal_weight=6.45242 2.98636
internal_count=4000 3955
is_linear=0
shrinkage=0.1


Tree=28
num_leaves=6
num_cat=0
split_feature=0 0 0 1 3
split_gain=5.8152 4.44089e-16 4.44089e-16 5.55112e-17 5.55112e-17
threshold=96.500000000000014 67.500000000000014 227.50000000000003 8.5000000000000018 140.50000000000003
decision_type=2 2 2 2 2
left_child=1 -1 -2 -3 -5
right_child=2 3 -4 4 -6
leaf_value=-0.10006841534855021 0.1000805032914846 -0.10006841534854977 0.1000805032914846 -0.10006841534854974 -0.10006841534854878
leaf_weight=2.2753094101790343 1.7424853518605234 0.1735521291848271 1.3939882814884184 0.18653437506873161 0.066961057716980577
leaf_count=3330 25 254 20 273 98
internal_value=0.00744657 -0.100068 0.100081 -0.100068 -0.100068
internal_weight=5.83883 2.70236 3.13647 0.427048 0.253495
internal_count=4000 3955 45 625 371
is_linear=0
shrinkage=0.1


Tree=29
num_leaves=4
num_cat=0
split_feature=0 0 3
split_gain=5.26142 4.44089e-16 4.44089e-16
threshold=96.500000000000014 70.500000000000014 15.500000000000002
decision_type=2 2 2
left_child=1 -1 -2
right_child=2 -3 -4
leaf_value=-0.10006190822501036 0.10007282691399222 -0.10006190822501011 0.10007282691399225
leaf_weight=2.1590755262877797 1.5137094855308535 0.28626917774090532 1.3244957998394964
leaf_count=3492 24 463 21
internal_value=0.00744601 -0.100062 0.100073
internal_weight=5.28355 2.44534 2.83821
internal_count=4000 3955 45
is_linear=0
shrinkage=0.1


Tree=30
num_leaves=2
num_cat=0
split_feature=0
split_gain=4.76041
threshold=96.500000000000014
decision_type=2
left_child=-1
right_child=-2
leaf_value=-0.1000560140218161 0.10006589903687929
leaf_weight=2.2127631495823152 2.5682831928133965
leaf_count=3955 45
internal_value=0.00744551
internal_weight=4.78105
internal_count=4000
is_linear=0
shrinkage=0.1


Tree=31
num_leaves=2
num_cat=0
split_feature=0
split_gain=4.30713
threshold=96.500000000000014
decision_type=2
left_child=-1
right_child=-2
leaf_value=-0.10005068048438032 0.10005962504459612
leaf_weight=2.0022922393400222 2.3240171000361443
leaf_count=3955 45
internal_value=0.00744505
internal_weight=4.32631
internal_count=4000
is_linear=0
shrinkage=0.1


Tree=32
num_leaves=4
num_cat=0
split_feature=0 0 4
split_gain=3.89704 2.22045e-16 1.11022e-16
threshold=96.500000000000014 33.500000000000007 0.1195319717021925
decision_type=2 2 2
left_child=1 2 -1
right_child=-2 -3 -4
leaf_value=-0.10004584958933244 0.10005395102796313 -0.10004584958933259 -0.10004584958933199
leaf_weight=0.55523141019512001 2.1029708907008171 1.1077141500427385 0.14888631048961543
leaf_count=1212 45 2418 325
internal_value=0.00744464 -0.100046 -0.100046
internal_weight=3.9148 1.81183 0.704118
internal_count=4000 3955 1537
is_linear=0
shrinkage=0.1


Tree=33
num_leaves=2
num_cat=0
split_feature=0
split_gain=3.52601
threshold=96.500000000000014
decision_type=2
left_child=-1
right_child=-2
leaf_value=-0.10004148625108843 0.10004881303541491
leaf_weight=1.6394811890495478 1.9029394537210462
leaf_count=3955 45
internal_value=0.00744426
internal_weight=3.54242
internal_count=4000
is_linear=0
shrinkage=0.1


Tree=34
num_leaves=4
num_cat=0
split_feature=0 0 3
split_gain=3.19032 2.22045e-16 2.22045e-16
threshold=96.500000000000014 227.50000000000003 32.500000000000007
decision_type=2 2 2
left_child=2 -2 -1
right_child=1 -3 -4
leaf_value=-0.10003753783752323 0.10004416993381707 0.10004416993381703 -0.10003753783752721
leaf_weight=0.033008777303621506 0.95662595704197861 0.76530076563358307 1.4505107026488984
leaf_count=88 25 20 3867
internal_value=0.00744392 0.100044 -0.100038
internal_weight=3.20545 1.72193 1.48352
internal_count=4000 45 3955
is_linear=0
shrinkage=0.1


Tree=35
num_leaves=2
num_cat=0
split_feature=0
split_gain=2.8866
threshold=96.500000000000014
decision_type=2
left_child=-1
right_child=-2
leaf_value=-0.10003396432142775 0.10003995875877375
leaf_weight=1.3423894791048954 1.5581258945167062
leaf_count=3955 45
internal_value=0.00744361
internal_weight=2.90052
internal_count=4000
is_linear=0
shrinkage=0.1


Tree=36
num_leaves=7
num_cat=0
split_feature=0 0 0 3 3 3
split_gain=2.61181 2.22045e-16 1.11022e-16 5.55112e-17 5.55112e-17 1.73472e-18
threshold=96.500000000000014 61.500000000000007 35.500000000000007 171.50000000000003 134.50000000000003 175.50000000000003
decision_type=2 2 2 2 2 2
left_child=1 2 -1 -3 -4 -5
right_child=-2 3 4 5 -6 -7
leaf_value=-0.10003073131722096 0.10003615765737373 -0.10003073131722084 -0.10003073131722087 -0.10003073131720915 -0.10003073131722043 -0.10003073131720704
leaf_weight=0.50798563350690551 1.4099014922976492 0.27487735307659023 0.28900512764812447 0.0082923894224222749 0.127457096677972 0.007063887285767124
leaf_count=1654 45 895 941 27 415 23
internal_value=0.00744334 -0.100031 -0.100031 -0.100031 -0.100031 -0.100031
internal_weight=2.62458 1.21468 0.924448 0.290234 0.416462 0.0153563
internal_count=4000 3955 3010 945 1356 50
is_linear=0
shrinkage=0.1


Tree=37
num_leaves=4
num_cat=0
split_feature=0 0 3
split_gain=2.36318 2.22045e-16 1.73472e-18
threshold=96.500000000000014 5.5000000000000009 122.50000000000001
decision_type=2 2 2
left_child=1 2 -1
right_child=-2 -3 -4
leaf_value=-0.10002780456707527 0.10003271231402133 -0.10002780456709121 -0.10002780456707626
leaf_weight=0.0083371918299238734 1.2757732719182966 1.0841128442843908 0.0066697534639388332
leaf_count=30 45 3901 24
internal_value=0.00744308 -0.100028 -0.100028
internal_weight=2.37489 1.09912 0.0150069
internal_count=4000 3955 54
is_linear=0
shrinkage=0.1


Tree=38
num_leaves=2
num_cat=0
split_feature=0
split_gain=2.13823
threshold=96.500000000000014
decision_type=2
left_child=-1
right_child=-2
leaf_value=-0.10002516110514413 0.10002959510684545
leaf_weight=0.99454964511096511 1.1544015537947414
leaf_count=3955 45
internal_value=0.00744285
internal_weight=2.14895
internal_count=4000
is_linear=0
shrinkage=0.1


Tree=39
num_leaves=4
num_cat=0
split_feature=3 0 0
split_gain=1.9347 1.11022e-16 1.38778e-17
threshold=29.000000000000004 14.500000000000002 12.500000000000002
decision_type=2 2 2
left_child=-1 2 -2
right_child=1 -3 -4
leaf_value=0.10002677686828428 -0.10002276720690709 -0.10002276720690806 -0.10002276720690376
leaf_weight=1.0445736441761253 0.099890668570879027 0.77750891687173862 0.02252659724035766
leaf_count=45 439 3417 99
internal_value=0.00744265 -0.100023 -0.100023
internal_weight=1.9445 0.899926 0.122417
internal_count=4000 3955 538
is_linear=0
shrinkage=0.1


Tree=40
num_leaves=4
num_cat=0
split_feature=0 0 0
split_gain=1.75054 1.11022e-16 1.11022e-16
threshold=96.500000000000014 74.500000000000014 208.50000000000003
decision_type=2 2 2
left_child=1 -1 -2
right_child=2 -3 -4
leaf_value=-0.10002059538035853 0.10002422719934086 -0.10002059538035674 0.10002422719934088
leaf_weight=0.76262469543144107 0.46209395676851273 0.051678941294085234 0.48309822753071785
leaf_count=3704 22 251 23
internal_value=0.00744246 -0.100021 0.100024
internal_weight=1.7595 0.814304 0.945192
internal_count=4000 3955 45
is_linear=0
shrinkage=0.1


Tree=41
num_leaves=3
num_cat=0
split_feature=0 0
split_gain=1.58392 1.11022e-16
threshold=96.500000000000014 76.500000000000014
decision_type=2 2
left_child=1 -1
right_child=-2 -3
leaf_value=-0.10001863683211332 0.10002192342638153 -0.10001863683210935
leaf_weight=0.71260676668316592 0.85526400245726109 0.024219314946094528
leaf_count=3825 45 130
internal_value=0.0074423 -0.100019
internal_weight=1.59209 0.736826
internal_count=4000 3955
is_linear=0
shrinkage=0.1


Tree=42
num_leaves=3
num_cat=0
split_feature=0 3
split_gain=1.43316 1.11022e-16
threshold=96.500000000000014 51.500000000000007
decision_type=2 2
left_child=1 -1
right_child=-2 -3
leaf_value=-0.10001686740810078 0.10001984215307276 -0.10001686740810159
leaf_weight=0.10367438757384662 0.77389013953506947 0.56304464145796373
leaf_count=615 45 3340
internal_value=0.00744214 -0.100017
internal_weight=1.44061 0.666719
internal_count=4000 3955
is_linear=0
shrinkage=0.1


Tree=43
num_leaves=5
num_cat=0
split_feature=0 0 3 4
split_gain=1.29675 1.11022e-16 2.77556e-17 1.73472e-18
threshold=96.500000000000014 69.500000000000014 56.500000000000007 0.089983042170810282
decision_type=2 2 2 2
left_child=1 -1 3 -3
right_child=-2 2 -4 -5
leaf_value=-0.10001525439785036 0.10001794863554148 -0.10001525439783979 -0.100015254397849 -0.10001525439783279
leaf_weight=0.52335245873837266 0.70025734137743711 0.0093047216505510733 0.064980515133356676 0.0056438475585309797
leaf_count=3431 45 61 426 37
internal_value=0.00744201 -0.100015 -0.100015 -0.100015
internal_weight=1.30354 0.603282 0.0799291 0.0149486
internal_count=4000 3955 524 98
is_linear=0
shrinkage=0.1


Tree=44
num_leaves=3
num_cat=0
split_feature=0 0
split_gain=1.17333 2.22045e-16
threshold=96.500000000000014 40.500000000000007
decision_type=2 2
left_child=1 -1
right_child=-2 -3
leaf_value=-0.10001381151686475 0.10001624447780338 -0.10001381151686478
leaf_weight=0.26486528982059099 0.63362929970026016 0.28101392916869372
leaf_count=1919 45 2036
internal_value=0.00744188 -0.100014
internal_weight=1.17951 0.545879
internal_count=4000 3955
is_linear=0
shrinkage=0.1


Tree=45
num_leaves=4
num_cat=0
split_feature=0 0 4
split_gain=1.06166 5.55112e-17 5.55112e-17
threshold=96.500000000000014 76.500000000000014 0.062171302109527739
decision_type=2 2 2
left_child=1 2 -1
right_child=-2 -3 -4
leaf_value=-0.10001250241338476 0.10001469983786303 -0.1000125024133791 -0.10001250241338489
leaf_weight=0.19869923872465733 0.57333990465849638 0.016235638613579795 0.27900320509797893
leaf_count=1591 45 130 2234
internal_value=0.00744177 -0.100013 -0.100013
internal_weight=1.06728 0.493938 0.477702
internal_count=4000 3955 3825
is_linear=0
shrinkage=0.1


Tree=46
num_leaves=3
num_cat=0
split_feature=0 0
split_gain=0.960616 5.55112e-17
threshold=96.500000000000014 75.500000000000014
decision_type=2 2
left_child=1 -1
right_child=-2 -3
leaf_value=-0.10001130610930359 0.1000132970097156 -0.10001130610929926
leaf_weight=0.4250155557092512 0.5187862878665328 0.021923163469182327
leaf_count=3761 45 194
internal_value=0.00744167 -0.100011
internal_weight=0.965725 0.446939
internal_count=4000 3955
is_linear=0
shrinkage=0.1


Tree=47
num_leaves=3
num_cat=0
split_feature=0 0
split_gain=0.869191 5.55112e-17
threshold=96.500000000000014 73.500000000000014
decision_type=2 2
left_child=1 -1
right_child=-2 -3
leaf_value=-0.10001022516787357 0.10001203478373884 -0.10001022516787068
leaf_weight=0.37281480118690524 0.46942287124693394 0.031596207780239638
leaf_count=3646 45 309
internal_value=0.00744158 -0.10001
internal_weight=0.873834 0.404411
internal_count=4000 3955
is_linear=0
shrinkage=0.1


Tree=48
num_leaves=2
num_cat=0
split_feature=0
split_gain=0.786467
threshold=96.500000000000014
decision_type=2
left_child=-1
right_child=-2
leaf_value=-0.10000924797016464 0.10001089286678032
leaf_weight=0.36592960765119642 0.42475600261241198
leaf_count=3955 45
internal_value=0.00744149
internal_weight=0.790686
internal_count=4000
is_linear=0
shrinkage=0.1


Tree=49
num_leaves=4
num_cat=0
split_feature=0 3 4
split_gain=0.711618 5.55112e-17 3.46945e-18
threshold=96.500000000000014 171.50000000000003 0.13267021523679545
decision_type=2 2 2
left_child=1 -1 -3
right_child=-2 2 -4
leaf_value=-0.10000837803137611 0.10000984659377617 -0.10000837803137025 -0.10000837803131959
leaf_weight=0.31319362972135423 0.38433892652392387 0.016157810889126267 0.0017581037755007847
leaf_count=3741 45 193 21
internal_value=0.00744141 -0.100008 -0.100008
internal_weight=0.715448 0.33111 0.0179159
internal_count=4000 3955 214
is_linear=0
shrinkage=0.1


Tree=50
num_leaves=2
num_cat=0
split_feature=0
split_gain=0.643893
threshold=96.500000000000014
decision_type=2
left_child=-1
right_child=-2
leaf_value=-0.10000756863033211 0.10000891173066324
leaf_weight=0.29960259580548154 0.3477673209272325
leaf_count=3955 45
internal_value=0.00744135
internal_weight=0.64737
internal_count=4000
is_linear=0
shrinkage=0.1


Tree=51
num_leaves=3
num_cat=0
split_feature=0 0
split_gain=0.582613 5.55112e-17
threshold=96.500000000000014 208.50000000000003
decision_type=2 2
left_child=-1 -2
right_child=1 -3
leaf_value=-0.10000685725155377 0.10000806424976175 0.10000806424976179
leaf_weight=0.27109348753583618 0.15384131669998169 0.16083410382270813
leaf_count=3955 22 23
internal_value=0.00744128 0.100008
internal_weight=0.585769 0.314675
internal_count=4000 45
is_linear=0
shrinkage=0.1


Tree=52
num_leaves=4
num_cat=0
split_feature=0 3 3
split_gain=0.527166 2.77556e-17 6.93889e-18
threshold=96.500000000000014 154.50000000000003 167.50000000000003
decision_type=2 2 2
left_child=1 -1 -3
right_child=-2 2 -4
leaf_value=-0.10000620583183906 0.10000730058725536 -0.100006205831835 -0.10000620583183449
leaf_weight=0.20374229934532195 0.28473216108977795 0.021893769153393805 0.019660976831801236
leaf_count=3285 45 353 317
internal_value=0.00744123 -0.100006 -0.100006
internal_weight=0.530029 0.245297 0.0415547
internal_count=4000 3955 670
is_linear=0
shrinkage=0.1


Tree=53
num_leaves=5
num_cat=0
split_feature=0 0 0 1
split_gain=0.476997 2.77556e-17 2.77556e-17 4.33681e-19
threshold=96.500000000000014 78.500000000000014 75.500000000000014 10.500000000000002
decision_type=2 2 2 2
left_child=1 2 -1 -3
right_child=-2 3 -4 -5
leaf_value=-0.10000561382983138 0.10000660432949547 -0.10000561382976592 -0.10000561382981932 -0.10000561382976057
leaf_weight=0.2110678790959355 0.25763801531866193 0.0015152440137171643 0.0079690611091791652 0.0014030037164047826
leaf_count=3761 45 27 142 25
internal_value=0.00744118 -0.100006 -0.100006 -0.100006
internal_weight=0.479593 0.221955 0.219037 0.00291825
internal_count=4000 3955 3903 52
is_linear=0
shrinkage=0.1


Tree=54
num_leaves=6
num_cat=0
split_feature=0 0 0 0 3
split_gain=0.431602 2.77556e-17 2.77556e-17 8.67362e-19 8.67362e-19
threshold=96.500000000000014 76.500000000000014 227.50000000000003 77.500000000000014 140.50000000000003
decision_type=2 2 2 2 2
left_child=1 -1 -2 -3 -5
right_child=2 3 -4 4 -6
leaf_value=-0.1000050794282149 0.10000597752217875 -0.10000507942816968 0.10000597752217857 -0.10000507942818147 -0.10000507942814751
leaf_weight=0.19423299745540135 0.12951217358931899 0.0021835343504790208 0.10360973887145519 0.0029452323797158897 0.0014726161898579448
leaf_count=3825 25 43 20 58 29
internal_value=0.00744113 -0.100005 0.100006 -0.100005 -0.100005
internal_weight=0.433956 0.200834 0.233122 0.00660138 0.00441785
internal_count=4000 3955 45 130 87
is_linear=0
shrinkage=0.1


Tree=55
num_leaves=4
num_cat=0
split_feature=0 0 0
split_gain=0.390527 2.77556e-17 3.46945e-18
threshold=96.500000000000014 70.500000000000014 78.500000000000014
decision_type=2 2 2
left_child=1 -1 -3
right_child=-2 2 -4
leaf_value=-0.10000460015216069 0.10000541406145956 -0.10000460015215602 -0.1000046001521195
leaf_weight=0.16044948775379453 0.21093855611979961 0.018884518747654511 0.002389282177318818
leaf_count=3492 45 411 52
internal_value=0.00744109 -0.100005 -0.100005
internal_weight=0.392662 0.181723 0.0212738
internal_count=4000 3955 463
is_linear=0
shrinkage=0.1


Tree=56
num_leaves=7
num_cat=0
split_feature=0 0 3 3 3 3
split_gain=0.353362 2.77556e-17 1.73472e-18 1.73472e-18 1.73472e-18 4.33681e-19
threshold=96.500000000000014 72.500000000000014 165.50000000000003 154.50000000000003 127.50000000000001 142.50000000000003
decision_type=2 2 2 2 2 2
left_child=1 -1 3 4 -3 -6
right_child=-2 2 -4 -5 5 -7
leaf_value=-0.10000415639962973 0.10000489653489959 -0.10000415639962029 -0.10000415639955958 -0.10000415639954441 -0.10000415639956867 -0.10000415639953418
leaf_weight=0.14929727534763515 0.19086603540927172 0.0098949461244046688 0.0014135637320578107 0.0011641113087534913 0.0016214407514780768 0.0010393850971013308
leaf_count=3591 45 238 34 28 39 25
internal_value=0.00744105 -0.100004 -0.100004 -0.100004 -0.100004 -0.100004
internal_weight=0.355297 0.164431 0.0151334 0.0137199 0.0125558 0.00266083
internal_count=4000 3955 364 330 302 64
is_linear=0
shrinkage=0.1


Tree=57
num_leaves=3
num_cat=0
split_feature=0 0
split_gain=0.319734 2.77556e-17
threshold=96.500000000000014 227.50000000000003
decision_type=2 2
left_child=-1 -2
right_child=1 -3
leaf_value=-0.10000376184703721 0.10000442868103523 0.10000442868103497
leaf_weight=0.14878362007948454 0.095946382498368621 0.076757105998694897
leaf_count=3955 25 20
internal_value=0.00744102 0.100004
internal_weight=0.321487 0.172703
internal_count=4000 45
is_linear=0
shrinkage=0.1


Tree=58
num_leaves=5
num_cat=0
split_feature=0 3 0 0
split_gain=0.289306 5.55112e-17 1.73472e-18 1.73472e-18
threshold=96.500000000000014 169.50000000000003 70.500000000000014 60.500000000000007
decision_type=2 2 2 2
left_child=1 -1 3 -3
right_child=-2 2 -4 -5
leaf_value=-0.10000339865120494 0.10000400270494288 -0.10000339865119126 -0.10000339865111384 -0.10000339865111095
leaf_weight=0.12557099732293864 0.15626920619979501 0.0069099789798201527 0.001089257770217956 0.001055218464898644
leaf_count=3689 45 203 32 31
internal_value=0.00744099 -0.100003 -0.100003 -0.100003
internal_weight=0.290895 0.134625 0.00905446 0.0079652
internal_count=4000 3955 266 234
is_linear=0
shrinkage=0.1


Tree=59
num_leaves=5
num_cat=0
split_feature=0 0 4 0
split_gain=0.261774 1.38778e-17 1.38778e-17 6.93889e-18
threshold=96.500000000000014 56.500000000000007 0.034519208432827873 66.500000000000014
decision_type=2 2 2 2
left_child=1 2 -1 -3
right_child=-2 3 -4 -5
leaf_value=-0.10000307100783817 0.10000362339754432 -0.1000030710078373 -0.10000307100784184 -0.10000307100783855
leaf_weight=0.019280883047031239 0.14139873557724059 0.016478070974699222 0.065296281245537102 0.02075928941485472
leaf_count=626 45 535 2120 674
internal_value=0.00744096 -0.100003 -0.100003 -0.100003
internal_weight=0.263213 0.121815 0.0845772 0.0372374
internal_count=4000 3955 2746 1209
is_linear=0
shrinkage=0.1


Tree=60
num_leaves=3
num_cat=0
split_feature=0 0
split_gain=0.236862 1.38778e-17
threshold=96.500000000000014 34.500000000000007
decision_type=2 2
left_child=1 -1
right_child=-2 -3
leaf_value=-0.10000278697904888 0.10000327563225152 -0.10000278697904962
leaf_weight=0.04447922656981973 0.12794328737072647 0.06574341821942653
leaf_count=1596 45 2359
internal_value=0.00744093 -0.100003
internal_weight=0.238166 0.110223
internal_count=4000 3955
is_linear=0
shrinkage=0.1


Tree=61
num_leaves=4
num_cat=0
split_feature=0 3 0
split_gain=0.214321 2.77556e-17 1.38778e-17
threshold=96.500000000000014 40.500000000000007 227.50000000000003
decision_type=2 2 2
left_child=1 -1 -2
right_child=2 -3 -4
leaf_value=-0.10000252465613926 0.10000296850067664 -0.10000252465615156 0.10000296850067625
leaf_weight=0.007464275957318022 0.064315675990656018 0.092269546377792722 0.051452540792524815
leaf_count=296 25 3659 20
internal_value=0.00744091 -0.100003 0.100003
internal_weight=0.215502 0.0997338 0.115768
internal_count=4000 3955 45
is_linear=0
shrinkage=0.1


Tree=62
num_leaves=3
num_cat=0
split_feature=0 1
split_gain=0.193925 1.38778e-17
threshold=96.500000000000014 5.5000000000000009
decision_type=2 2
left_child=1 -1
right_child=-2 -3
leaf_value=-0.10000227996757885 0.10000269056743971 -0.10000227996758151
leaf_weight=0.024003980754059739 0.10475169285200536 0.066239121795661049
leaf_count=1052 45 2903
internal_value=0.00744089 -0.100002
internal_weight=0.194995 0.0902431
internal_count=4000 3955
is_linear=0
shrinkage=0.1


Tree=63
num_leaves=3
num_cat=0
split_feature=0 0
split_gain=0.17547 1.38778e-17
threshold=96.500000000000014 76.500000000000014
decision_type=2 2
left_child=1 -1
right_child=-2 -3
leaf_value=-0.10000206161261327 0.10000243188295728 -0.1000020616125773
leaf_weight=0.078971502898639301 0.094783483073115349 0.0026839987913263022
leaf_count=3825 45 130
internal_value=0.00744087 -0.100002
internal_weight=0.176439 0.0816555
internal_count=4000 3955
is_linear=0
shrinkage=0.1


Tree=64
num_leaves=3
num_cat=0
split_feature=0 1
split_gain=0.158772 1.38778e-17
threshold=96.500000000000014 17.500000000000004
decision_type=2 2
left_child=1 -1
right_child=-2 -3
leaf_value=-0.10000186948101304 0.10000219287020205 -0.10000186948100108
leaf_weight=0.066468561890360434 0.08576383232139051 0.0074165314981655675
leaf_count=3558 45 397
internal_value=0.00744085 -0.100002
internal_weight=0.159649 0.0738851
internal_count=4000 3955
is_linear=0
shrinkage=0.1


Tree=65
num_leaves=4
num_cat=0
split_feature=0 0 0
split_gain=0.143662 1.38778e-17 1.38778e-17
threshold=96.500000000000014 42.500000000000007 208.50000000000003
decision_type=2 2 2
left_child=1 -1 -2
right_child=2 -3 -4
leaf_value=-0.10000168946111709 0.10000198469784197 -0.10000168946111694 0.10000198469784211
leaf_weight=0.034314498625462875 0.037938989233225584 0.03253961076552514 0.039663488743826747
leaf_count=2030 22 1925 23
internal_value=0.00744084 -0.100002 0.100002
internal_weight=0.144457 0.0668541 0.0776025
internal_count=4000 3955 45
is_linear=0
shrinkage=0.1


Tree=66
num_leaves=6
num_cat=0
split_feature=0 0 4 4 4
split_gain=0.129991 1.38778e-17 3.46945e-18 8.67362e-19 8.67362e-19
threshold=96.500000000000014 23.500000000000004 0.070961673144916831 0.051830785178899351 0.037367042558477233
decision_type=2 2 2 2 2
left_child=1 2 3 4 -1
right_child=-2 -3 -4 -5 -6
leaf_value=-0.10000153414724011 0.10000180547350788 -0.10000153414726161 -0.10000153414725209 -0.10000153414720846 -0.10000153414720443
leaf_weight=0.004206157427688594 0.070217748871073127 0.044325251728878357 0.0084734953270526603 0.0018048239144263789 0.001682462971075438
leaf_count=275 45 2898 554 118 110
internal_value=0.00744082 -0.100002 -0.100002 -0.100002 -0.100002
internal_weight=0.13071 0.0604922 0.0161669 0.00769344 0.00588862
internal_count=4000 3955 1057 503 385
is_linear=0
shrinkage=0.1


Tree=67
num_leaves=3
num_cat=0
split_feature=0 3
split_gain=0.11762 1.38778e-17
threshold=96.500000000000014 118.50000000000001
decision_type=2 2
left_child=1 -1
right_child=-2 -3
leaf_value=-0.10000138662384782 0.10000162431666203 -0.10000138662384639
leaf_weight=0.032523091795155779 0.063535753288306296 0.022212579715414904
leaf_count=2350 45 1605
internal_value=0.00744081 -0.100001
internal_weight=0.118271 0.0547357
internal_count=4000 3955
is_linear=0
shrinkage=0.1


Tree=68
num_leaves=7
num_cat=0
split_feature=0 0 0 3 3 3
split_gain=0.106427 6.93889e-18 1.73472e-18 1.73472e-18 1.73472e-18 4.33681e-19
threshold=96.500000000000014 25.500000000000004 23.500000000000004 167.50000000000003 127.50000000000001 152.50000000000003
decision_type=2 2 2 2 2 2
left_child=1 2 3 4 -1 -6
right_child=-2 -3 -4 -5 5 -7
leaf_value=-0.10000124920452823 0.10000147621059119 -0.10000124920453712 -0.10000124920445115 -0.10000124920444703 -0.10000124920449699 -0.1000012492044639
leaf_weight=0.0085153789405012503 0.057489608880132437 0.035163505977834575 0.0011270354480075193 0.0010769449836516296 0.0023292065925488723 0.0013148746893421048
leaf_count=680 45 2808 90 86 186 105
internal_value=0.0074408 -0.100001 -0.100001 -0.100001 -0.100001 -0.100001
internal_weight=0.107017 0.0495269 0.0143634 0.0132364 0.0121595 0.00364408
internal_count=4000 3955 1147 1057 971 291
is_linear=0
shrinkage=0.1


Tree=69
num_leaves=4
num_cat=0
split_feature=0 0 4
split_gain=0.096299 6.93889e-18 1.73472e-18
threshold=96.500000000000014 63.500000000000007 0.12869344097344246
decision_type=2 2 2
left_child=1 -1 -3
right_child=-2 2 -4
leaf_value=-0.10000113175697765 0.1000013293400744 -0.10000113175696806 -0.10000113175691405
leaf_weight=0.035261898628959898 0.052018819260410964 0.0080449704455531901 0.0015070155905050351
leaf_count=3112 45 710 133
internal_value=0.00744079 -0.100001 -0.100001
internal_weight=0.0968327 0.0448139 0.00955199
internal_count=4000 3955 843
is_linear=0
shrinkage=0.1


Tree=70
num_leaves=3
num_cat=0
split_feature=0 0
split_gain=0.0871348 6.93889e-18
threshold=96.500000000000014 66.500000000000014
decision_type=2 2
left_child=1 -1
right_child=-2 -3
leaf_value=-0.10000102901347561 0.10000121315865121 -0.10000102901346411
leaf_weight=0.033639019578004081 0.047068629646673799 0.0069103014920983688
leaf_count=3281 45 674
internal_value=0.00744078 -0.100001
internal_weight=0.087618 0.0405493
internal_count=4000 3955
is_linear=0
shrinkage=0.1


Tree=71
num_leaves=5
num_cat=0
split_feature=0 0 0 0
split_gain=0.0788428 6.93889e-18 4.33681e-19 4.33681e-19
threshold=96.500000000000014 71.500000000000014 76.500000000000014 74.500000000000014
decision_type=2 2 2 2
left_child=1 -1 3 -3
right_child=-2 2 -4 -5
leaf_value=-0.10000093135601898 0.10000108858746193 -0.10000093135595829 -0.10000093135593908 -0.10000093135593294
leaf_weight=0.032794232388368982 0.042589505610521883 0.0015678147874496054 0.0012060113749612356 0.0011225182797716116
leaf_count=3535 45 169 130 121
internal_value=0.00744077 -0.100001 -0.100001 -0.100001
internal_weight=0.0792801 0.0366906 0.00389634 0.00269033
internal_count=4000 3955 420 290
is_linear=0
shrinkage=0.1


Tree=72
num_leaves=4
num_cat=0
split_feature=0 0 0
split_gain=0.0713398 6.93889e-18 8.67362e-19
threshold=96.500000000000014 65.500000000000014 69.500000000000014
decision_type=2 2 2
left_child=1 -1 -3
right_child=-2 2 -4
leaf_value=-0.10000084511500942 0.10000099236618652 -0.10000084511495616 -0.10000084511499037
leaf_weight=0.027046090404837742 0.038536614447366446 0.0017543863732498713 0.0043985572228848469
leaf_count=3222 45 209 524
internal_value=0.00744077 -0.100001 -0.100001
internal_weight=0.0717356 0.033199 0.00615294
internal_count=4000 3955 733
is_linear=0
shrinkage=0.1


Tree=73
num_leaves=3
num_cat=0
split_feature=0 1
split_gain=0.0645509 3.46945e-18
threshold=96.500000000000014 1.5000000000000002
decision_type=2 2
left_child=1 -1
right_child=-2 -3
leaf_value=-0.1000007543811412 0.10000089391269207 -0.10000075438120004
leaf_weight=0.0016026264988795438 0.034869403461925685 0.02843712612229865
leaf_count=211 45 3744
internal_value=0.00744076 -0.100001
internal_weight=0.0649092 0.0300398
internal_count=4000 3955
is_linear=0
shrinkage=0.1


Tree=74
num_leaves=4
num_cat=0
split_feature=0 0 0
split_gain=0.058408 3.46945e-18 8.67362e-19
threshold=96.500000000000014 66.500000000000014 73.500000000000014
decision_type=2 2 2
left_child=1 -1 -3
right_child=-2 2 -4
leaf_value=-0.1000006881494987 0.10000081358574986 -0.10000068814946331 -0.10000068814945605
leaf_weight=0.02254898235833025 0.03155116515699774 0.002508496970676787 0.0021236316820250067
leaf_count=3281 45 365 309
internal_value=0.00744075 -0.100001 -0.100001
internal_weight=0.0587323 0.0271811 0.00463213
internal_count=4000 3955 674
is_linear=0
shrinkage=0.1


Tree=75
num_leaves=3
num_cat=0
split_feature=0 0
split_gain=0.0528497 3.46945e-18
threshold=96.500000000000014 54.500000000000007
decision_type=2 2
left_child=1 -1
right_child=-2 -3
leaf_value=-0.10000062158075129 0.10000072482549936 -0.10000062158074519
leaf_weight=0.016404625992436195 0.028548696718644351 0.0081898758271563565
leaf_count=2638 45 1317
internal_value=0.00744074 -0.100001
internal_weight=0.0531432 0.0245945
internal_count=4000 3955
is_linear=0
shrinkage=0.1


Tree=76
num_leaves=2
num_cat=0
split_feature=0
split_gain=0.0478203
threshold=96.500000000000014
decision_type=2
left_child=-1
right_child=-2
leaf_value=-0.10000056572568257 0.10000065909631627
leaf_weight=0.022254037066886667 0.025831946404650807
leaf_count=3955 45
internal_value=0.00744074
internal_weight=0.048086
internal_count=4000
is_linear=0
shrinkage=0.1


Tree=77
num_leaves=4
num_cat=0
split_feature=0 0 0
split_gain=0.0432696 3.46945e-18 1.73472e-18
threshold=96.500000000000014 49.500000000000007 34.500000000000007
decision_type=2 2 2
left_child=1 2 -1
right_child=-2 -3 -4
leaf_value=-0.10000050911033881 0.10000059393728558 -0.10000050911033859 -0.10000050911032628
leaf_weight=0.0081257974652544362 0.023373725416604429 0.0079781482631915424 0.0040323506218555858
leaf_count=1596 45 1567 792
internal_value=0.00744073 -0.100001 -0.100001
internal_weight=0.04351 0.0201363 0.0121581
internal_count=4000 3955 2388
is_linear=0
shrinkage=0.1


Tree=78
num_leaves=4
num_cat=0
split_feature=0 0 3
split_gain=0.0391519 3.46945e-18 3.46945e-18
threshold=96.500000000000014 71.500000000000014 15.500000000000002
decision_type=2 2 2
left_child=1 -1 -2
right_child=2 -3 -4
leaf_value=-0.10000046394252818 0.1000005387449161 -0.10000046394248266 0.10000053874491484
leaf_weight=0.016285206254451623 0.0112796975299716 0.0019348759906279147 0.0098697353387251496
leaf_count=3535 24 420 21
internal_value=0.00744073 -0.1 0.100001
internal_weight=0.0393695 0.0182201 0.0211494
internal_count=4000 3955 45
is_linear=0
shrinkage=0.1


Tree=79
num_leaves=2
num_cat=0
split_feature=0
split_gain=0.0354261
threshold=96.500000000000014
decision_type=2
left_child=-1
right_child=-2
leaf_value=-0.10000041455217178 0.10000049274892059
leaf_weight=0.016486218869431468 0.019136806949973106
leaf_count=3955 45
internal_value=0.00744073
internal_weight=0.035623
internal_count=4000
is_linear=0
shrinkage=0.1


Tree=80
num_leaves=3
num_cat=0
split_feature=0 0
split_gain=0.0320549 1.73472e-18
threshold=96.500000000000014 71.500000000000014
decision_type=2 2
left_child=1 -1
right_child=-2 -3
leaf_value=-0.10000037978292908 0.10000043868260314 -0.10000037978287341
leaf_weight=0.013333209450365757 0.017315707518719137 0.0015841436970731601
leaf_count=3535 45 420
internal_value=0.00744073 -0.1
internal_weight=0.0322331 0.0149174
internal_count=4000 3955
is_linear=0
shrinkage=0.1


Tree=81
num_leaves=5
num_cat=0
split_feature=0 0 0 0
split_gain=0.0290044 1.73472e-18 1.73472e-18 1.73472e-18
threshold=96.500000000000014 70.500000000000014 63.500000000000007 53.500000000000007
decision_type=2 2 2 2
left_child=1 2 3 -1
right_child=-2 -3 -4 -5
leaf_value=-0.10000033977729866 0.10000040122956165 -0.10000033977724661 -0.10000033977723277 -0.10000033977725376
leaf_weight=0.008839256745432067 0.015667906554881483 0.0015801451247625673 0.0012968793680556709 0.0017815027108554213
leaf_count=2590 45 463 380 522
internal_value=0.00744073 -0.1 -0.1 -0.1
internal_weight=0.0291657 0.0134978 0.0119176 0.0106208
internal_count=4000 3955 3492 3112
is_linear=0
shrinkage=0.1


Tree=82
num_leaves=6
num_cat=0
split_feature=0 0 0 0 0
split_gain=0.0262443 1.73472e-18 1.73472e-18 1.73472e-18 1.73472e-18
threshold=96.500000000000014 71.500000000000014 63.500000000000007 55.500000000000007 227.50000000000003
decision_type=2 2 2 2 2
left_child=1 2 3 -1 -2
right_child=4 -3 -4 -5 -6
leaf_value=-0.10000030924506845 0.10000036028451231 -0.10000030924500332 -0.10000030924500386 -0.10000030924500403 0.10000036028450912
leaf_weight=0.0083007233042735606 0.0078760625910945237 0.0012969880162927447 0.0013062522164091215 0.0013093402831145804 0.0063008500728756198
leaf_count=2688 25 420 423 424 20
internal_value=0.00744072 -0.1 -0.1 -0.1 0.1
internal_weight=0.0263902 0.0122133 0.0109163 0.00961006 0.0141769
internal_count=4000 3955 3535 3112 45
is_linear=0
shrinkage=0.1


Tree=83
num_leaves=6
num_cat=0
split_feature=0 0 0 0 4
split_gain=0.0237468 3.46945e-18 1.73472e-18 1.73472e-18 1.73472e-18
threshold=96.500000000000014 72.500000000000014 64.500000000000014 227.50000000000003 0.13267021523679545
decision_type=2 2 2 2 2
left_child=1 2 4 -2 -1
right_child=3 -3 -4 -5 -6
leaf_value=-0.10000027666977487 0.10000033691802515 -0.10000027666968921 -0.10000027666970353 0.10000033691802164 -0.10000027666968839
leaf_weight=0.0078349345294554951 0.0071265581937041134 0.0010170885052502862 0.0011903288550456645 0.0057012465549632907 0.0010087059076795421
leaf_count=2804 25 364 426 20 361
internal_value=0.00744072 -0.1 -0.1 0.1 -0.1
internal_weight=0.0238789 0.0110511 0.010034 0.0128278 0.00884364
internal_count=4000 3955 3591 45 3165
is_linear=0
shrinkage=0.1


Tree=84
num_leaves=3
num_cat=0
split_feature=0 0
split_gain=0.021487 1.73472e-18
threshold=96.500000000000014 68.500000000000014
decision_type=2 2
left_child=1 -1
right_child=-2 -3
leaf_value=-0.10000025180837724 0.10000030465154675 -0.10000025180831972
leaf_weight=0.0085532273665194225 0.011607081396505237 0.001446185649911059
leaf_count=3383 45 572
internal_value=0.00744072 -0.1
internal_weight=0.0216065 0.00999941
internal_count=4000 3955
is_linear=0
shrinkage=0.1


Tree=85
num_leaves=3
num_cat=0
split_feature=0 4
split_gain=0.0194422 1.73472e-18
threshold=96.500000000000014 0.1320145538723847
decision_type=2 2
left_child=1 -1
right_child=-2 -3
leaf_value=-0.10000022859636003 0.10000026810653478 -0.10000022859627927
leaf_weight=0.0079749150636416744 0.010502524673938751 0.0010729303398875354
leaf_count=3486 45 469
internal_value=0.00744071 -0.1
internal_weight=0.0195504 0.00904785
internal_count=4000 3955
is_linear=0
shrinkage=0.1


Tree=86
num_leaves=2
num_cat=0
split_feature=0
split_gain=0.0175921
threshold=96.500000000000014
decision_type=2
left_child=-1
right_child=-2
leaf_value=-0.10000019771668943 0.10000024117724321
leaf_weight=0.0081868308654975408 0.0095030796364881098
leaf_count=3955 45
internal_value=0.00744071
internal_weight=0.0176899
internal_count=4000
is_linear=0
shrinkage=0.1


Tree=87
num_leaves=3
num_cat=0
split_feature=0 0
split_gain=0.0159179 8.67362e-19
threshold=96.500000000000014 67.500000000000014
decision_type=2 2
left_child=1 -1
right_child=-2 -3
leaf_value=-0.10000018816199562 0.1000002208491045 -0.1000001881619262
leaf_weight=0.0062371209560296839 0.0085987436614232138 0.0011706308100656315
leaf_count=3330 45 625
internal_value=0.00744071 -0.1
internal_weight=0.0160065 0.00740775
internal_count=4000 3955
is_linear=0
shrinkage=0.1


Tree=88
num_leaves=4
num_cat=0
split_feature=0 0 0
split_gain=0.0144031 8.67362e-19 8.67362e-19
threshold=96.500000000000014 66.500000000000014 227.50000000000003
decision_type=2 2 2
left_child=1 -1 -2
right_child=2 -3 -4
leaf_value=-0.10000016770251369 0.10000019357746304 -0.10000016770244412 0.10000019357745725
leaf_weight=0.0055605379188818915 0.0043224816181464121 0.001142274476478633 0.0034579852945171297
leaf_count=3281 25 674 20
internal_value=0.00744071 -0.1 0.1
internal_weight=0.0144833 0.00670281 0.00778047
internal_count=4000 3955 45
is_linear=0
shrinkage=0.1


Tree=89
num_leaves=3
num_cat=0
split_feature=0 0
split_gain=0.0130325 8.67362e-19
threshold=96.500000000000014 58.500000000000007
decision_type=2 2
left_child=1 -1
right_child=-2 -3
leaf_value=-0.10000015568552437 0.10000017672986905 -0.1000001556854881
leaf_weight=0.0043735158506024163 0.0070400586992036551 0.0016914403868213412
leaf_count=2852 45 1103
internal_value=0.0074407 -0.1
internal_weight=0.013105 0.00606496
internal_count=4000 3955
is_linear=0
shrinkage=0.1


Tree=90
num_leaves=3
num_cat=0
split_feature=0 0
split_gain=0.0117923 1.73472e-18
threshold=96.500000000000014 18.500000000000004
decision_type=2 2
left_child=1 -1
right_child=-2 -3
leaf_value=-0.10000013928584967 0.1000001644772022 -0.10000013928592233
leaf_weight=0.0010503830203560938 0.0063701095496071503 0.0044374173039614107
leaf_count=757 45 3198
internal_value=0.0074407 -0.1
internal_weight=0.0118579 0.0054878
internal_count=4000 3955
is_linear=0
shrinkage=0.1


Tree=91
num_leaves=4
num_cat=0
split_feature=0 0 0
split_gain=0.0106701 8.67362e-19 8.67362e-19
threshold=96.500000000000014 54.500000000000007 227.50000000000003
decision_type=2 2 2
left_child=1 -1 -2
right_child=2 -3 -4
leaf_value=-0.10000012676977821 0.1000001476924834 -0.10000012676974793 0.10000014769247562
leaf_weight=0.003312052249611952 0.0032021747756516561 0.0016535150920162778 0.0025617398205213249
leaf_count=2638 25 1317 20
internal_value=0.00744071 -0.1 0.1
internal_weight=0.0107295 0.00496557 0.00576391
internal_count=4000 3955 45
is_linear=0
shrinkage=0.1


Tree=92
num_leaves=3
num_cat=0
split_feature=0 0
split_gain=0.00965471 8.67362e-19
threshold=96.500000000000014 208.50000000000003
decision_type=2 2
left_child=-1 -2
right_child=1 -3
leaf_value=-0.10000012008765376 0.10000013183590564 0.10000013183590735
leaf_weight=0.0044930316727231911 0.0025497541064396501 0.0026656520203687251
leaf_count=3955 22 23
internal_value=0.0074407 0.1
internal_weight=0.00970844 0.00521541
internal_count=4000 45
is_linear=0
shrinkage=0.1


Tree=93
num_leaves=3
num_cat=0
split_feature=0 3
split_gain=0.00873594 8.67362e-19
threshold=96.500000000000014 15.500000000000002
decision_type=2 2
left_child=-1 -2
right_child=1 -3
leaf_value=-0.10000009953801935 0.10000011794857576 0.10000011794857007
leaf_weight=0.0040654636444514836 0.0025168508291244507 0.0022022444754838943
leaf_count=3955 24 21
internal_value=0.00744071 0.1
internal_weight=0.00878456 0.0047191
internal_count=4000 45
is_linear=0
shrinkage=0.1


Tree=94
num_leaves=3
num_cat=0
split_feature=0 4
split_gain=0.00790461 8.67362e-19
threshold=96.500000000000014 0.093040345425337526
decision_type=2 2
left_child=1 -1
right_child=-2 -3
leaf_value=-0.10000009167206983 0.10000011501765903 -0.10000009167204343
leaf_weight=0.0022620269446633756 0.0042700142148532905 0.0014165571697049018
leaf_count=2432 45 1523
internal_value=0.0074407 -0.1
internal_weight=0.0079486 0.00367858
internal_count=4000 3955
is_linear=0
shrinkage=0.1


Tree=95
num_leaves=3
num_cat=0
split_feature=0 3
split_gain=0.00715238 4.33681e-19
threshold=96.500000000000014 86.500000000000014
decision_type=2 2
left_child=1 -1
right_child=-2 -3
leaf_value=-0.10000008105059643 0.10000010169132156 -0.10000008105062791
leaf_weight=0.0012548229069579975 0.0038636690442217514 0.0020736979495268315
leaf_count=1491 45 2464
internal_value=0.0074407 -0.1
internal_weight=0.00719219 0.00332852
internal_count=4000 3955
is_linear=0
shrinkage=0.1


Tree=96
num_leaves=2
num_cat=0
split_feature=0
split_gain=0.00647174
threshold=96.500000000000014
decision_type=2
left_child=-1
right_child=-2
leaf_value=-0.10000007464567216 0.10000009365523033
leaf_weight=0.0030117703425958098 0.0034959926051669754
leaf_count=3955 45
internal_value=0.0074407
internal_weight=0.00650776
internal_count=4000
is_linear=0
shrinkage=0.1


Tree=97
num_leaves=2
num_cat=0
split_feature=0
split_gain=0.00585588
threshold=96.500000000000014
decision_type=2
left_child=-1
right_child=-2
leaf_value=-0.1000000742465951 0.10000007245350601
leaf_weight=0.0027251626710267374 0.0031633053731638938
leaf_count=3955 45
internal_value=0.0074407
internal_weight=0.00588847
internal_count=4000
is_linear=0
shrinkage=0.1


Tree=98
num_leaves=3
num_cat=0
split_feature=0 0
split_gain=0.00529861 4.33681e-19
threshold=96.500000000000014 48.500000000000007
decision_type=2 2
left_child=1 -1
right_child=-2 -3
leaf_value=-0.10000005470340421 0.10000006863442752 -0.10000005470337417
leaf_weight=0.0014539353230702545 0.0028622771787922829 0.0010118940949155331
leaf_count=2332 45 1623
internal_value=0.0074407 -0.1
internal_weight=0.00532811 0.00246583
internal_count=4000 3955
is_linear=0
shrinkage=0.1


Tree=99
num_leaves=2
num_cat=0
split_feature=0
split_gain=0.00479438
threshold=96.500000000000014
decision_type=2
left_child=-1
right_child=-2
leaf_value=-0.10000005038052498 0.10000006321063104
leaf_weight=0.0022311748611514304 0.0025898957755998708
leaf_count=3955 45
internal_value=0.0074407
internal_weight=0.00482107
internal_count=4000
is_linear=0
shrinkage=0.1


end of trees

feature_importances:
Column_0=213
Column_3=50
Column_4=22
Column_1=12

parameters:
[boosting: gbdt]
[objective: binary]
[metric: binary_logloss]
[tree_learner: serial]
[device_type: cpu]
[data_sample_strategy: bagging]
[data: ]
[valid: ]
[num_iterations: 100]
[learning_rate: 0.1]
[num_leaves: 31]
[num_threads: 16]
[seed: 42]
[deterministic: 0]
[force_col_wise: 0]
[force_row_wise: 0]
[histogram_pool_size: -1]
[max_depth: 6]
[min_data_in_leaf: 20]
[min_sum_hessian_in_leaf: 0.001]
[bagging_fraction: 1]
[pos_bagging_fraction: 1]
[neg_bagging_fraction: 1]
[bagging_freq: 0]
[bagging_seed: 400]
[bagging_by_query: 0]
[feature_fraction: 1]
[feature_fraction_bynode: 1]
[feature_fraction_seed: 30056]
[extra_trees: 0]
[extra_seed: 12879]
[early_stopping_round: 0]
[early_stopping_min_delta: 0]
[first_metric_only: 0]
[max_delta_step: 0]
[lambda_l1: 0]
[lambda_l2: 0]
[linear_lambda: 0]
[min_gain_to_split: 0]
[drop_rate: 0.1]
[max_drop: 50]
[skip_drop: 0.5]
[xgboost_dart_mode: 0]
[uniform_drop: 0]
[drop_seed: 17869]
[top_rate: 0.2]
[other_rate: 0.1]
[min_data_per_group: 100]
[max_cat_threshold: 32]
[cat_l2: 10]
[cat_smooth: 10]
[max_cat_to_onehot: 4]
[top_k: 20]
[monotone_constraints: ]
[monotone_constraints_method: basic]
[monotone_penalty: 0]
[feature_contri: ]
[forcedsplits_filename: ]
[refit_decay_rate: 0.9]
[cegb_tradeoff: 1]
[cegb_penalty_split: 0]
[cegb_penalty_feature_lazy: ]
[cegb_penalty_feature_coupled: ]
[path_smooth: 0]
[interaction_constraints: ]
[verbosity: -1]
[saved_feature_importance_type: 0]
[use_quantized_grad: 0]
[num_grad_quant_bins: 4]
[quant_train_renew_leaf: 0]
[stochastic_rounding: 1]
[linear_tree: 0]
[max_bin: 255]
[max_bin_by_feature: ]
[min_data_in_bin: 3]
[bin_construct_sample_cnt: 200000]
[data_random_seed: 175]
[is_enable_sparse: 1]
[enable_bundle: 1]
[use_missing: 1]
[zero_as_missing: 0]
[feature_pre_filter: 1]
[pre_partition: 0]
[two_round: 0]
[header: 0]
[label_column: ]
[weight_column: ]
[group_column: ]
[ignore_column: ]
[categorical_feature: ]
[forcedbins_filename: ]
[precise_float_parser: 0]
[parser_config_file: ]
[objective_seed: 16083]
[num_class: 1]
[is_unbalance: 0]
[scale_pos_weight: 86.7193]
[sigmoid: 1]
[boost_from_average: 1]
[reg_sqrt: 0]
[alpha: 0.9]
[fair_c: 1]
[poisson_max_delta_step: 0.7]
[tweedie_variance_power: 1.5]
[lambdarank_truncation_level: 30]
[lambdarank_norm: 1]
[label_gain: ]
[lambdarank_position_bias_regularization: 0]
[eval_at: ]
[multi_error_top_k: 1]
[auc_mu_weights: ]
[num_machines: 1]
[local_listen_port: 12400]
[time_out: 120]
[machine_list_filename: ]
[machines: ]
[gpu_platform_id: -1]
[gpu_device_id: -1]
[gpu_use_dp: 0]
[num_gpu: 1]

end of parameters

pandas_categorical:null
